Language model created by QuickLM on Fri Apr 17 08:04:33 EDT 2020
Copyright (c) 1996-2010 Carnegie Mellon University and Alexander I. Rudnicky

The model is in standard ARPA format, designed by Doug Paul while he was at MITRE.

The code that was used to produce this language model is available in Open Source.
Please visit http://www.speech.cs.cmu.edu/tools/ for more information

The (fixed) discount mass is 0.5. The backoffs are computed using the ratio method.
This model based on a corpus of 15 sentences and 36 words

\data\
ngram 1=36
ngram 2=53
ngram 3=45

\1-grams:
-1.0334 </s> -0.3010
-1.0334 <s> -0.2588
-2.2095 A -0.2983
-2.2095 AFTERNOON -0.2588
-1.9085 ARE -0.2902
-2.2095 BEDROOM -0.2588
-2.2095 BOOKSHELF -0.2588
-2.2095 CAN -0.2902
-2.2095 DO -0.2588
-2.2095 EVENING -0.2588
-2.2095 FOR -0.2983
-2.2095 FROM -0.2588
-1.6075 GO -0.2874
-1.7324 GOOD -0.2929
-2.2095 HOW -0.2983
-2.2095 INTRODUCE -0.2983
-2.2095 IS -0.2983
-2.2095 JOKE -0.2588
-2.2095 KITCHEN -0.2588
-2.2095 ME -0.2588
-2.2095 MORNING -0.2588
-2.2095 NAME -0.2588
-2.2095 OLD -0.2956
-2.2095 PHOTO -0.2588
-2.2095 TABLE -0.2588
-2.2095 TAKE -0.2983
-2.2095 TALKING -0.2874
-2.2095 TELL -0.2983
-2.2095 THANK -0.2902
-1.6075 THE -0.2902
-1.5105 TO -0.2874
-1.9085 WHAT -0.2956
-2.2095 WHERE -0.2956
-1.6075 YOU -0.2499
-2.2095 YOUR -0.2983
-2.2095 YOURSELF -0.2588

\2-grams:
-0.8751 <s> GO 0.0000
-1.0000 <s> GOOD 0.0000
-1.4771 <s> HOW 0.0000
-1.4771 <s> INTRODUCE 0.0000
-1.4771 <s> TAKE 0.0000
-1.4771 <s> TELL 0.0000
-1.4771 <s> THANK 0.0000
-1.1761 <s> WHAT 0.0000
-1.4771 <s> WHERE 0.0000
-0.3010 A JOKE 0.0000
-0.3010 AFTERNOON </s> -0.3010
-0.3010 ARE YOU -0.1761
-0.3010 BEDROOM </s> -0.3010
-0.3010 BOOKSHELF </s> -0.3010
-0.3010 CAN YOU -0.2430
-0.3010 DO </s> -0.3010
-0.3010 EVENING </s> -0.3010
-0.3010 FOR TALKING 0.0000
-0.3010 FROM </s> -0.3010
-0.3010 GO TO -0.0792
-0.7782 GOOD AFTERNOON 0.0000
-0.7782 GOOD EVENING 0.0000
-0.7782 GOOD MORNING 0.0000
-0.3010 HOW OLD 0.0000
-0.3010 INTRODUCE YOURSELF 0.0000
-0.3010 IS YOUR 0.0000
-0.3010 JOKE </s> -0.3010
-0.3010 KITCHEN </s> -0.3010
-0.3010 ME </s> -0.3010
-0.3010 MORNING </s> -0.3010
-0.3010 NAME </s> -0.3010
-0.3010 OLD ARE 0.0000
-0.3010 PHOTO </s> -0.3010
-0.3010 TABLE </s> -0.3010
-0.3010 TAKE PHOTO 0.0000
-0.3010 TALKING TO -0.2553
-0.3010 TELL A 0.0000
-0.3010 THANK YOU -0.2430
-0.9031 THE BEDROOM 0.0000
-0.9031 THE BOOKSHELF 0.0000
-0.9031 THE KITCHEN 0.0000
-0.9031 THE TABLE 0.0000
-1.0000 TO ME 0.0000
-0.3979 TO THE 0.0000
-0.6021 WHAT CAN 0.0000
-0.6021 WHAT IS 0.0000
-0.3010 WHERE ARE 0.0000
-0.9031 YOU </s> -0.3010
-0.9031 YOU DO 0.0000
-0.9031 YOU FOR 0.0000
-0.9031 YOU FROM 0.0000
-0.3010 YOUR NAME 0.0000
-0.3010 YOURSELF </s> -0.3010

\3-grams:
-0.3010 <s> GO TO
-0.7782 <s> GOOD AFTERNOON
-0.7782 <s> GOOD EVENING
-0.7782 <s> GOOD MORNING
-0.3010 <s> HOW OLD
-0.3010 <s> INTRODUCE YOURSELF
-0.3010 <s> TAKE PHOTO
-0.3010 <s> TELL A
-0.3010 <s> THANK YOU
-0.6021 <s> WHAT CAN
-0.6021 <s> WHAT IS
-0.3010 <s> WHERE ARE
-0.3010 A JOKE </s>
-0.6021 ARE YOU </s>
-0.6021 ARE YOU FROM
-0.3010 CAN YOU DO
-0.3010 FOR TALKING TO
-0.3010 GO TO THE
-0.3010 GOOD AFTERNOON </s>
-0.3010 GOOD EVENING </s>
-0.3010 GOOD MORNING </s>
-0.3010 HOW OLD ARE
-0.3010 INTRODUCE YOURSELF </s>
-0.3010 IS YOUR NAME
-0.3010 OLD ARE YOU
-0.3010 TAKE PHOTO </s>
-0.3010 TALKING TO ME
-0.3010 TELL A JOKE
-0.3010 THANK YOU FOR
-0.3010 THE BEDROOM </s>
-0.3010 THE BOOKSHELF </s>
-0.3010 THE KITCHEN </s>
-0.3010 THE TABLE </s>
-0.3010 TO ME </s>
-0.9031 TO THE BEDROOM
-0.9031 TO THE BOOKSHELF
-0.9031 TO THE KITCHEN
-0.9031 TO THE TABLE
-0.3010 WHAT CAN YOU
-0.3010 WHAT IS YOUR
-0.3010 WHERE ARE YOU
-0.3010 YOU DO </s>
-0.3010 YOU FOR TALKING
-0.3010 YOU FROM </s>
-0.3010 YOUR NAME </s>

\end\
