Language model created by QuickLM on Fri Apr 10 05:19:52 EDT 2020
Copyright (c) 1996-2010 Carnegie Mellon University and Alexander I. Rudnicky

The model is in standard ARPA format, designed by Doug Paul while he was at MITRE.

The code that was used to produce this language model is available in Open Source.
Please visit http://www.speech.cs.cmu.edu/tools/ for more information

The (fixed) discount mass is 0.5. The backoffs are computed using the ratio method.
This model based on a corpus of 16 sentences and 39 words

\data\
ngram 1=39
ngram 2=58
ngram 3=48

\1-grams:
-1.0212 </s> -0.3010
-1.0212 <s> -0.2547
-1.9243 A -0.2958
-2.2253 AFTERNOON -0.2576
-2.2253 AM -0.2984
-1.9243 ARE -0.2852
-2.2253 BLUE -0.2576
-1.7482 CAN -0.2852
-2.2253 DO -0.2576
-2.2253 EVENING -0.2576
-2.2253 FOR -0.2984
-2.2253 FROM -0.2576
-1.7482 GOOD -0.2932
-2.2253 GOODBYE -0.2576
-2.2253 HELLO -0.2576
-2.2253 HOW -0.2984
-2.2253 I -0.2984
-2.2253 INTRODUCE -0.2984
-2.2253 IS -0.2984
-2.2253 JOKE -0.2576
-2.2253 LISA -0.2576
-1.7482 ME -0.2518
-2.2253 MORNING -0.2576
-2.2253 NAME -0.2576
-2.2253 OLD -0.2958
-2.2253 PHOTO -0.2576
-2.2253 PLEASE -0.2984
-2.2253 RECOGNIZE -0.2984
-2.2253 STORY -0.2576
-2.2253 TAKE -0.2984
-2.2253 TALKING -0.2984
-1.9243 TELL -0.2932
-2.2253 THANK -0.2852
-2.2253 TO -0.2932
-1.9243 WHAT -0.2906
-2.2253 WHERE -0.2958
-1.4472 YOU -0.2430
-2.2253 YOUR -0.2984
-2.2253 YOURSELF -0.2576

\2-grams:
-1.2041 <s> CAN 0.0000
-1.0280 <s> GOOD 0.0000
-1.5051 <s> GOODBYE 0.0000
-1.5051 <s> HELLO 0.0000
-1.5051 <s> HOW 0.0000
-1.5051 <s> I 0.0000
-1.5051 <s> PLEASE 0.0000
-1.5051 <s> RECOGNIZE 0.0000
-1.5051 <s> TAKE 0.0000
-1.5051 <s> THANK 0.0000
-1.2041 <s> WHAT 0.0000
-1.5051 <s> WHERE 0.0000
-0.6021 A JOKE 0.0000
-0.6021 A STORY 0.0000
-0.3010 AFTERNOON </s> -0.3010
-0.3010 AM LISA 0.0000
-0.3010 ARE YOU -0.2218
-0.3010 BLUE </s> -0.3010
-0.3010 CAN YOU -0.1761
-0.3010 DO </s> -0.3010
-0.3010 EVENING </s> -0.3010
-0.3010 FOR TALKING 0.0000
-0.3010 FROM </s> -0.3010
-0.7782 GOOD AFTERNOON 0.0000
-0.7782 GOOD EVENING 0.0000
-0.7782 GOOD MORNING 0.0000
-0.3010 GOODBYE </s> -0.3010
-0.3010 HELLO </s> -0.3010
-0.3010 HOW OLD 0.0000
-0.3010 I AM 0.0000
-0.3010 INTRODUCE YOURSELF 0.0000
-0.3010 IS YOUR 0.0000
-0.3010 JOKE </s> -0.3010
-0.3010 LISA </s> -0.3010
-0.7782 ME </s> -0.3010
-0.4771 ME A 0.0000
-0.3010 MORNING </s> -0.3010
-0.3010 NAME </s> -0.3010
-0.3010 OLD ARE 0.0000
-0.3010 PHOTO </s> -0.3010
-0.3010 PLEASE INTRODUCE 0.0000
-0.3010 RECOGNIZE BLUE 0.0000
-0.3010 STORY </s> -0.3010
-0.3010 TAKE PHOTO 0.0000
-0.3010 TALKING TO 0.0000
-0.3010 TELL ME -0.1249
-0.3010 THANK YOU -0.2632
-0.3010 TO ME -0.2218
-0.6021 WHAT CAN 0.0000
-0.6021 WHAT IS 0.0000
-0.3010 WHERE ARE 0.0000
-1.0792 YOU </s> -0.3010
-1.0792 YOU DO 0.0000
-1.0792 YOU FOR 0.0000
-1.0792 YOU FROM 0.0000
-0.7782 YOU TELL 0.0000
-0.3010 YOUR NAME 0.0000
-0.3010 YOURSELF </s> -0.3010

\3-grams:
-0.3010 <s> CAN YOU
-0.7782 <s> GOOD AFTERNOON
-0.7782 <s> GOOD EVENING
-0.7782 <s> GOOD MORNING
-0.3010 <s> GOODBYE </s>
-0.3010 <s> HELLO </s>
-0.3010 <s> HOW OLD
-0.3010 <s> I AM
-0.3010 <s> PLEASE INTRODUCE
-0.3010 <s> RECOGNIZE BLUE
-0.3010 <s> TAKE PHOTO
-0.3010 <s> THANK YOU
-0.6021 <s> WHAT CAN
-0.6021 <s> WHAT IS
-0.3010 <s> WHERE ARE
-0.3010 A JOKE </s>
-0.3010 A STORY </s>
-0.3010 AM LISA </s>
-0.6021 ARE YOU </s>
-0.6021 ARE YOU FROM
-0.7782 CAN YOU DO
-0.4771 CAN YOU TELL
-0.3010 FOR TALKING TO
-0.3010 GOOD AFTERNOON </s>
-0.3010 GOOD EVENING </s>
-0.3010 GOOD MORNING </s>
-0.3010 HOW OLD ARE
-0.3010 I AM LISA
-0.3010 INTRODUCE YOURSELF </s>
-0.3010 IS YOUR NAME
-0.6021 ME A JOKE
-0.6021 ME A STORY
-0.3010 OLD ARE YOU
-0.3010 PLEASE INTRODUCE YOURSELF
-0.3010 RECOGNIZE BLUE </s>
-0.3010 TAKE PHOTO </s>
-0.3010 TALKING TO ME
-0.3010 TELL ME A
-0.3010 THANK YOU FOR
-0.3010 TO ME </s>
-0.3010 WHAT CAN YOU
-0.3010 WHAT IS YOUR
-0.3010 WHERE ARE YOU
-0.3010 YOU DO </s>
-0.3010 YOU FOR TALKING
-0.3010 YOU FROM </s>
-0.3010 YOU TELL ME
-0.3010 YOUR NAME </s>

\end\
